digraph Tree {
0 [label="X[2] <= 2.4500\ngini = 0.665694444444\nsamples = 120", shape="box"] ;
1 [label="gini = 0.0000\nsamples = 37\nvalue = [ 37.   0.   0.]", shape="box"] ;
0 -> 1 ;
2 [label="X[3] <= 1.6500\ngini = 0.499927420525\nsamples = 83", shape="box"] ;
0 -> 2 ;
3 [label="X[2] <= 4.9500\ngini = 0.127066115702\nsamples = 44", shape="box"] ;
2 -> 3 ;
4 [label="gini = 0.0000\nsamples = 40\nvalue = [  0.  40.   0.]", shape="box"] ;
3 -> 4 ;
5 [label="X[3] <= 1.5500\ngini = 0.375\nsamples = 4", shape="box"] ;
3 -> 5 ;
6 [label="gini = 0.0000\nsamples = 2\nvalue = [ 0.  0.  2.]", shape="box"] ;
5 -> 6 ;
7 [label="X[1] <= 2.8500\ngini = 0.5\nsamples = 2", shape="box"] ;
5 -> 7 ;
8 [label="gini = 0.0000\nsamples = 1\nvalue = [ 0.  1.  0.]", shape="box"] ;
7 -> 8 ;
9 [label="gini = 0.0000\nsamples = 1\nvalue = [ 0.  0.  1.]", shape="box"] ;
7 -> 9 ;
10 [label="X[2] <= 4.8500\ngini = 0.0499671268902\nsamples = 39", shape="box"] ;
2 -> 10 ;
11 [label="X[1] <= 3.1000\ngini = 0.375\nsamples = 4", shape="box"] ;
10 -> 11 ;
12 [label="gini = 0.0000\nsamples = 3\nvalue = [ 0.  0.  3.]", shape="box"] ;
11 -> 12 ;
13 [label="gini = 0.0000\nsamples = 1\nvalue = [ 0.  1.  0.]", shape="box"] ;
11 -> 13 ;
14 [label="gini = 0.0000\nsamples = 35\nvalue = [  0.   0.  35.]", shape="box"] ;
10 -> 14 ;
}